digraph Tree {
node [shape=box] ;
0 [label="X[27] <= 6631.5\nmse = 5.39882232851e+11\nsamples = 3026\nvalue = 1829506.275"] ;
1 [label="X[4] <= 0.4695\nmse = 2.06813078697e+11\nsamples = 443\nvalue = 2353094.9255"] ;
0 -> 1 [labeldistance=2.5, labelangle=45, headlabel="True"] ;
2 [label="X[7] <= 12.3908\nmse = 1.20183673469e+11\nsamples = 7\nvalue = 1168571.4286"] ;
1 -> 2 ;
3 [label="mse = 0.0\nsamples = 1\nvalue = 2000000.0"] ;
2 -> 3 ;
4 [label="X[5] <= 27.7362\nmse = 5800000000.0\nsamples = 6\nvalue = 1030000.0"] ;
2 -> 4 ;
5 [label="X[17] <= 16550.5\nmse = 24000000.0\nsamples = 5\nvalue = 996000.0"] ;
4 -> 5 ;
6 [label="mse = 0.0\nsamples = 3\nvalue = 1000000.0"] ;
5 -> 6 ;
7 [label="mse = 0.0\nsamples = 2\nvalue = 990000.0"] ;
5 -> 7 ;
8 [label="mse = 0.0\nsamples = 1\nvalue = 1200000.0"] ;
4 -> 8 ;
9 [label="X[1] <= 34.5\nmse = 1.85315480183e+11\nsamples = 436\nvalue = 2372112.5046"] ;
1 -> 9 ;
10 [label="X[12] <= 0.5647\nmse = 1.13027958347e+11\nsamples = 228\nvalue = 2243881.0921"] ;
9 -> 10 ;
11 [label="X[13] <= 1365303552.0\nmse = 16975621900.0\nsamples = 20\nvalue = 2830090.0"] ;
10 -> 11 ;
12 [label="X[13] <= 1362970880.0\nmse = 4933813333.33\nsamples = 6\nvalue = 2693000.0"] ;
11 -> 12 ;
13 [label="mse = 657982222.221\nsamples = 3\nvalue = 2651133.3333"] ;
12 -> 13 ;
14 [label="mse = 5704008888.89\nsamples = 3\nvalue = 2734866.6667"] ;
12 -> 14 ;
15 [label="X[16] <= 3.6524\nmse = 10630069591.8\nsamples = 14\nvalue = 2888842.8571"] ;
11 -> 15 ;
16 [label="mse = 5759421538.46\nsamples = 13\nvalue = 2909000.0"] ;
15 -> 16 ;
17 [label="mse = 0.0\nsamples = 1\nvalue = 2626800.0"] ;
15 -> 17 ;
18 [label="X[4] <= 5.0751\nmse = 86044214124.6\nsamples = 208\nvalue = 2187514.851"] ;
10 -> 18 ;
19 [label="X[14] <= 34.345\nmse = 87356285835.4\nsamples = 106\nvalue = 2068654.5377"] ;
18 -> 19 ;
20 [label="mse = 25000000.0\nsamples = 2\nvalue = 995000.0"] ;
19 -> 20 ;
21 [label="mse = 66441463847.3\nsamples = 104\nvalue = 2089301.7404"] ;
19 -> 21 ;
22 [label="X[1] <= 31.5\nmse = 54741322754.5\nsamples = 102\nvalue = 2311036.3529"] ;
18 -> 22 ;
23 [label="mse = 28918941875.3\nsamples = 84\nvalue = 2246477.1548"] ;
22 -> 23 ;
24 [label="mse = 65028229462.9\nsamples = 18\nvalue = 2612312.6111"] ;
22 -> 24 ;
25 [label="X[25] <= 10460.0\nmse = 2.26771849257e+11\nsamples = 208\nvalue = 2512673.8606"] ;
9 -> 25 ;
26 [label="X[4] <= 14.2333\nmse = 1.81421265784e+11\nsamples = 201\nvalue = 2545503.2985"] ;
25 -> 26 ;
27 [label="X[12] <= 1.4969\nmse = 1.58997496804e+11\nsamples = 199\nvalue = 2561035.995"] ;
26 -> 27 ;
28 [label="mse = 2.2912845173e+11\nsamples = 73\nvalue = 2399132.2466"] ;
27 -> 28 ;
29 [label="mse = 94380577304.2\nsamples = 126\nvalue = 2654837.373"] ;
27 -> 29 ;
30 [label="mse = 0.0\nsamples = 2\nvalue = 1000000.0"] ;
26 -> 30 ;
31 [label="X[13] <= 1391353216.0\nmse = 6.094e+11\nsamples = 7\nvalue = 1570000.0"] ;
25 -> 31 ;
32 [label="mse = 0.0\nsamples = 1\nvalue = 2800000.0"] ;
31 -> 32 ;
33 [label="X[13] <= 1414940416.0\nmse = 4.16791666667e+11\nsamples = 6\nvalue = 1365000.0"] ;
31 -> 33 ;
34 [label="mse = 5936000000.0\nsamples = 5\nvalue = 1078000.0"] ;
33 -> 34 ;
35 [label="mse = 0.0\nsamples = 1\nvalue = 2800000.0"] ;
33 -> 35 ;
36 [label="X[13] <= 1340074752.0\nmse = 5.41924278263e+11\nsamples = 2583\nvalue = 1739707.6794"] ;
0 -> 36 [labeldistance=2.5, labelangle=-45, headlabel="False"] ;
37 [label="X[3] <= 30.95\nmse = 4.58272929846e+11\nsamples = 443\nvalue = 1465595.1851"] ;
36 -> 37 ;
38 [label="X[3] <= 5.45\nmse = 2.13988721176e+11\nsamples = 61\nvalue = 1090142.8525"] ;
37 -> 38 ;
39 [label="X[31] <= 24.5\nmse = 34187964604.7\nsamples = 8\nvalue = 628026.75"] ;
38 -> 39 ;
40 [label="X[1] <= 63.5\nmse = 5989880130.69\nsamples = 4\nvalue = 796045.25"] ;
39 -> 40 ;
41 [label="mse = 1203474506.89\nsamples = 3\nvalue = 754865.6667"] ;
40 -> 41 ;
42 [label="mse = 0.0\nsamples = 1\nvalue = 919584.0"] ;
40 -> 42 ;
43 [label="X[1] <= 67.5\nmse = 5925616394.19\nsamples = 4\nvalue = 460008.25"] ;
39 -> 43 ;
44 [label="mse = 0.0\nsamples = 1\nvalue = 338570.0"] ;
43 -> 44 ;
45 [label="mse = 1346489164.22\nsamples = 3\nvalue = 500487.6667"] ;
43 -> 45 ;
46 [label="X[1] <= 68.5\nmse = 2.04028767533e+11\nsamples = 53\nvalue = 1159896.2264"] ;
38 -> 46 ;
47 [label="X[12] <= 0.3678\nmse = 2.24890627548e+11\nsamples = 39\nvalue = 1254474.359"] ;
46 -> 47 ;
48 [label="mse = 1.92206322195e+11\nsamples = 38\nvalue = 1223013.1579"] ;
47 -> 48 ;
49 [label="mse = 0.0\nsamples = 1\nvalue = 2450000.0"] ;
47 -> 49 ;
50 [label="X[1] <= 71.0\nmse = 51580102040.8\nsamples = 14\nvalue = 896428.5714"] ;
46 -> 50 ;
51 [label="mse = 0.0\nsamples = 1\nvalue = 340000.0"] ;
50 -> 51 ;
52 [label="mse = 29899408284.0\nsamples = 13\nvalue = 939230.7692"] ;
50 -> 52 ;
53 [label="X[7] <= 9.8811\nmse = 4.71177100426e+11\nsamples = 382\nvalue = 1525549.6152"] ;
37 -> 53 ;
54 [label="X[14] <= 15.76\nmse = 4.56629865289e+11\nsamples = 349\nvalue = 1489448.2894"] ;
53 -> 54 ;
55 [label="X[9] <= 4.786\nmse = 2.787616857e+11\nsamples = 75\nvalue = 1216364.4933"] ;
54 -> 55 ;
56 [label="mse = 2.15298373113e+11\nsamples = 69\nvalue = 1157077.3478"] ;
55 -> 56 ;
57 [label="mse = 5.03313472222e+11\nsamples = 6\nvalue = 1898166.6667"] ;
55 -> 57 ;
58 [label="X[27] <= 23712.0\nmse = 4.79316166585e+11\nsamples = 274\nvalue = 1564197.5036"] ;
54 -> 58 ;
59 [label="mse = 5.99271780957e+11\nsamples = 31\nvalue = 1953003.2258"] ;
58 -> 59 ;
60 [label="mse = 4.42267906916e+11\nsamples = 243\nvalue = 1514596.7737"] ;
58 -> 60 ;
61 [label="X[17] <= 57997.0\nmse = 4.65471310376e+11\nsamples = 33\nvalue = 1907348.4848"] ;
53 -> 61 ;
62 [label="X[7] <= 11.5006\nmse = 1.221429375e+11\nsamples = 8\nvalue = 1184750.0"] ;
61 -> 62 ;
63 [label="mse = 62500000000.0\nsamples = 2\nvalue = 1750000.0"] ;
62 -> 63 ;
64 [label="mse = 20555555.5554\nsamples = 6\nvalue = 996333.3333"] ;
62 -> 64 ;
65 [label="X[9] <= 0.7393\nmse = 3.547808336e+11\nsamples = 25\nvalue = 2138580.0"] ;
61 -> 65 ;
66 [label="mse = 0.0\nsamples = 2\nvalue = 990000.0"] ;
65 -> 66 ;
67 [label="mse = 2.60939845936e+11\nsamples = 23\nvalue = 2238456.5217"] ;
65 -> 67 ;
68 [label="X[1] <= 27.5\nmse = 5.40466827124e+11\nsamples = 2140\nvalue = 1796451.5276"] ;
36 -> 68 ;
69 [label="X[6] <= 12.7168\nmse = 3.95808181025e+11\nsamples = 115\nvalue = 2247313.087"] ;
68 -> 69 ;
70 [label="X[23] <= 7.5\nmse = 3.84263635268e+11\nsamples = 63\nvalue = 1947110.381"] ;
69 -> 70 ;
71 [label="X[1] <= 17.5\nmse = 2.83216175907e+11\nsamples = 47\nvalue = 1792900.1489"] ;
70 -> 71 ;
72 [label="mse = 1.04375892857e+11\nsamples = 28\nvalue = 2042500.0"] ;
71 -> 72 ;
73 [label="mse = 3.19659715702e+11\nsamples = 19\nvalue = 1425068.7895"] ;
71 -> 73 ;
74 [label="X[31] <= 4.5\nmse = 4.06032203606e+11\nsamples = 16\nvalue = 2400102.9375"] ;
70 -> 74 ;
75 [label="mse = 21480468521.9\nsamples = 7\nvalue = 2824953.2857"] ;
74 -> 75 ;
76 [label="mse = 4.55550767211e+11\nsamples = 9\nvalue = 2069663.7778"] ;
74 -> 76 ;
77 [label="X[18] <= 3.5\nmse = 1.68326106767e+11\nsamples = 52\nvalue = 2611020.2115"] ;
69 -> 77 ;
78 [label="X[15] <= 7.4485\nmse = 18397754513.4\nsamples = 16\nvalue = 2784685.25"] ;
77 -> 78 ;
79 [label="mse = 12925373724.5\nsamples = 14\nvalue = 2816464.2857"] ;
78 -> 79 ;
80 [label="mse = 149621824.0\nsamples = 2\nvalue = 2562232.0"] ;
78 -> 80 ;
81 [label="X[1] <= 19.5\nmse = 2.15599246406e+11\nsamples = 36\nvalue = 2533835.75"] ;
77 -> 81 ;
82 [label="mse = 3.13136888889e+11\nsamples = 21\nvalue = 2407333.3333"] ;
81 -> 82 ;
83 [label="mse = 25276932550.8\nsamples = 15\nvalue = 2710939.1333"] ;
81 -> 83 ;
84 [label="X[3] <= 2286.45\nmse = 5.36482342502e+11\nsamples = 2025\nvalue = 1770847.044"] ;
68 -> 84 ;
85 [label="X[3] <= 5.3\nmse = 5.36363253847e+11\nsamples = 1990\nvalue = 1760108.9101"] ;
84 -> 85 ;
86 [label="X[0] <= 38994.0\nmse = 4.73378818141e+11\nsamples = 28\nvalue = 2427640.1429"] ;
85 -> 86 ;
87 [label="mse = 5.29945088969e+11\nsamples = 12\nvalue = 1866307.0833"] ;
86 -> 87 ;
88 [label="mse = 17392185145.9\nsamples = 16\nvalue = 2848639.9375"] ;
86 -> 88 ;
89 [label="X[1] <= 38.5\nmse = 5.30812165265e+11\nsamples = 1962\nvalue = 1750582.4704"] ;
85 -> 89 ;
90 [label="mse = 4.9951078445e+11\nsamples = 601\nvalue = 1622969.7953"] ;
89 -> 90 ;
91 [label="mse = 5.3426764715e+11\nsamples = 1361\nvalue = 1806934.5775"] ;
89 -> 91 ;
92 [label="X[1] <= 35.0\nmse = 1.63938707771e+11\nsamples = 35\nvalue = 2381386.6571"] ;
84 -> 92 ;
93 [label="X[18] <= 3.5\nmse = 65931625716.6\nsamples = 17\nvalue = 2141161.4706"] ;
92 -> 93 ;
94 [label="mse = 27831510902.2\nsamples = 10\nvalue = 1988028.4"] ;
93 -> 94 ;
95 [label="mse = 39004129689.7\nsamples = 7\nvalue = 2359923.0"] ;
93 -> 95 ;
96 [label="X[8] <= 0.1775\nmse = 1.50524583254e+11\nsamples = 18\nvalue = 2608266.0"] ;
92 -> 96 ;
97 [label="mse = 0.0\nsamples = 2\nvalue = 2000000.0"] ;
96 -> 97 ;
98 [label="mse = 1.17310660211e+11\nsamples = 16\nvalue = 2684299.25"] ;
96 -> 98 ;
}